{"sizes":[17,8,4],"layers":[{"go":{},"to":{},"dashboard":{},"three":{},"navig":{},"open":{},"show":{},"me":{},"sale":{},"statist":{},"uncheck":{},"all":{},"todo":{},"send":{},"new":{},"messag":{},"answer":{}},{"0":{"bias":0.33500877022743225,"weights":{"go":-0.4575653672218323,"to":-0.493644118309021,"dashboard":-1.4626083374023438,"three":-1.4386550188064575,"navig":-0.40572214126586914,"open":-0.4416675269603729,"show":-0.06318347156047821,"me":-0.20942001044750214,"sale":-0.9181708097457886,"statist":-0.9044022560119629,"uncheck":0.4314207136631012,"all":0.12438203394412994,"todo":0.3107205927371979,"send":0.6656160354614258,"new":0.4033188223838806,"messag":2.049734592437744,"answer":0.3877583146095276}},"1":{"bias":-0.3534567058086395,"weights":{"go":-0.08805228024721146,"to":0.3047182559967041,"dashboard":1.1750054359436035,"three":1.197062373161316,"navig":0.3325207829475403,"open":0.16769349575042725,"show":-0.2485429346561432,"me":-0.1446310132741928,"sale":-0.9423132538795471,"statist":-0.9044440984725952,"uncheck":-1.5527758598327637,"all":-0.36440566182136536,"todo":-1.619614839553833,"send":0.8515888452529907,"new":0.40347450971603394,"messag":2.2002289295196533,"answer":0.6387254595756531}},"2":{"bias":-0.3095516860485077,"weights":{"go":0.09801426529884338,"to":0.17763566970825195,"dashboard":-0.17029546201229095,"three":-0.351636677980423,"navig":0.1349640190601349,"open":0.08625780791044235,"show":0.2627246379852295,"me":0.1601569950580597,"sale":1.2086443901062012,"statist":1.086495280265808,"uncheck":-0.9282011985778809,"all":-0.4338242709636688,"todo":-0.8728328347206116,"send":0.08136699348688126,"new":0.20384086668491364,"messag":0.6746523380279541,"answer":0.24053005874156952}},"3":{"bias":0.24302442371845245,"weights":{"go":-0.13462680578231812,"to":0.14324817061424255,"dashboard":1.3765721321105957,"three":1.3874660730361938,"navig":0.24968989193439484,"open":-0.09143315255641937,"show":-0.28205108642578125,"me":-0.20469747483730316,"sale":-1.4227004051208496,"statist":-1.3223354816436768,"uncheck":1.4965916872024536,"all":0.3248786926269531,"todo":1.5165743827819824,"send":-0.8780122399330139,"new":-0.17037847638130188,"messag":-2.053117275238037,"answer":-0.48867732286453247}},"4":{"bias":-0.660506010055542,"weights":{"go":0.41083455085754395,"to":0.5643731951713562,"dashboard":1.0720247030258179,"three":0.8773258328437805,"navig":0.14013534784317017,"open":0.641020655632019,"show":0.24269366264343262,"me":0.18049857020378113,"sale":1.2475029230117798,"statist":1.459559679031372,"uncheck":-0.8567684292793274,"all":-0.3709946870803833,"todo":-0.964728057384491,"send":-0.494545578956604,"new":-0.24628885090351105,"messag":-0.8573607206344604,"answer":-0.3446159362792969}},"5":{"bias":0.17790384590625763,"weights":{"go":-0.03533028066158295,"to":-0.23332089185714722,"dashboard":-1.3720332384109497,"three":-1.2859731912612915,"navig":-0.2315538078546524,"open":0.08952993899583817,"show":0.2411411553621292,"me":0.3418475091457367,"sale":1.312292456626892,"statist":1.278670310974121,"uncheck":1.139937400817871,"all":0.28327473998069763,"todo":1.0711630582809448,"send":-0.6448177099227905,"new":-0.03839453309774399,"messag":-1.447101354598999,"answer":-0.21293382346630096}},"6":{"bias":0.2922431528568268,"weights":{"go":-0.1610637754201889,"to":-0.2707749307155609,"dashboard":-0.8165906667709351,"three":-0.6797927021980286,"navig":-0.11341448128223419,"open":-0.24749167263507843,"show":-0.22046726942062378,"me":-0.3303077816963196,"sale":-0.6253732442855835,"statist":-0.8197889924049377,"uncheck":0.6581248641014099,"all":0.0809086337685585,"todo":0.5917837023735046,"send":0.2959957718849182,"new":0.259471595287323,"messag":0.46909159421920776,"answer":0.1798185110092163}},"7":{"bias":-0.11847483366727829,"weights":{"go":0.02191775105893612,"to":0.16276194155216217,"dashboard":-0.13333967328071594,"three":-0.1496243178844452,"navig":-0.07600700110197067,"open":0.030489493161439896,"show":0.06232466176152229,"me":0.009840232320129871,"sale":0.7720803022384644,"statist":0.5165795683860779,"uncheck":-0.2901037335395813,"all":-0.21889139711856842,"todo":-0.2938261926174164,"send":0.06212667375802994,"new":0.08897478878498077,"messag":0.06097714975476265,"answer":-0.10298176109790802}}},{"gtDashboard3":{"bias":-0.2631080448627472,"weights":{"0":-3.093254566192627,"1":1.6246346235275269,"2":-0.8631781935691833,"3":2.5160343647003174,"4":0.8935970067977905,"5":-2.86538028717041,"6":-1.3399016857147217,"7":-0.6437820196151733}},"salesStats":{"bias":-0.80939120054245,"weights":{"0":-1.7173024415969849,"1":-2.355835437774658,"2":1.3361262083053589,"3":-2.789958953857422,"4":1.7147736549377441,"5":2.0697202682495117,"6":-1.4097545146942139,"7":0.4085944592952728}},"uncheckTodos":{"bias":-0.3711439073085785,"weights":{"0":0.9511139392852783,"1":-3.3162574768066406,"2":-2.074774742126465,"3":2.5473990440368652,"4":-2.4132814407348633,"5":1.5474773645401,"6":0.9386692643165588,"7":-0.9104859828948975}},"sendMessage":{"bias":-0.9214838743209839,"weights":{"0":2.8801662921905518,"1":2.31242036819458,"2":0.05960050970315933,"3":-3.059680938720703,"4":-2.0839855670928955,"5":-1.9794257879257202,"6":0.47078704833984375,"7":-0.40022197365760803}}}],"outputLookup":true,"inputLookup":true,"activation":"sigmoid","trainOpts":{"iterations":20000,"errorThresh":0.001,"log":false,"logPeriod":10,"learningRate":0.3,"momentum":0.1,"callbackPeriod":10,"beta1":0.9,"beta2":0.999,"epsilon":1e-8}}